digraph Tree {
node [shape=box, style="filled, rounded", color="black", fontname=helvetica] ;
edge [fontname=helvetica] ;
0 [label="ActionLatency <= 57.258\ngini = 0.494\nsamples = 2503\nvalue = [1393, 1110]\nclass = 0", fillcolor="#e5813934"] ;
1 [label="SelectByHotkeys <= 0.002\ngini = 0.376\nsamples = 1028\nvalue = [258, 770]\nclass = 1", fillcolor="#399de5aa"] ;
0 -> 1 [labeldistance=2.5, labelangle=45, headlabel="True"] ;
2 [label="ActionLatency <= 53.316\ngini = 0.484\nsamples = 134\nvalue = [79, 55]\nclass = 0", fillcolor="#e581394d"] ;
1 -> 2 ;
3 [label="MinimapAttacks <= 0.0\ngini = 0.493\nsamples = 77\nvalue = [34, 43]\nclass = 1", fillcolor="#399de535"] ;
2 -> 3 ;
4 [label="HoursPerWeek <= 5.0\ngini = 0.434\nsamples = 22\nvalue = [15, 7]\nclass = 0", fillcolor="#e5813988"] ;
3 -> 4 ;
5 [label="gini = 0.0\nsamples = 3\nvalue = [0, 3]\nclass = 1", fillcolor="#399de5ff"] ;
4 -> 5 ;
6 [label="gini = 0.332\nsamples = 19\nvalue = [15, 4]\nclass = 0", fillcolor="#e58139bb"] ;
4 -> 6 ;
7 [label="AssignToHotkeys <= 0.0\ngini = 0.452\nsamples = 55\nvalue = [19, 36]\nclass = 1", fillcolor="#399de578"] ;
3 -> 7 ;
8 [label="gini = 0.245\nsamples = 7\nvalue = [6, 1]\nclass = 0", fillcolor="#e58139d4"] ;
7 -> 8 ;
9 [label="gini = 0.395\nsamples = 48\nvalue = [13, 35]\nclass = 1", fillcolor="#399de5a0"] ;
7 -> 9 ;
10 [label="UniqueHotkeys <= 0.0\ngini = 0.332\nsamples = 57\nvalue = [45, 12]\nclass = 0", fillcolor="#e58139bb"] ;
2 -> 10 ;
11 [label="HoursPerWeek <= 36.0\ngini = 0.219\nsamples = 48\nvalue = [42, 6]\nclass = 0", fillcolor="#e58139db"] ;
10 -> 11 ;
12 [label="gini = 0.127\nsamples = 44\nvalue = [41, 3]\nclass = 0", fillcolor="#e58139ec"] ;
11 -> 12 ;
13 [label="gini = 0.375\nsamples = 4\nvalue = [1, 3]\nclass = 1", fillcolor="#399de5aa"] ;
11 -> 13 ;
14 [label="ActionsInPAC <= 5.251\ngini = 0.444\nsamples = 9\nvalue = [3, 6]\nclass = 1", fillcolor="#399de57f"] ;
10 -> 14 ;
15 [label="gini = 0.375\nsamples = 4\nvalue = [3, 1]\nclass = 0", fillcolor="#e58139aa"] ;
14 -> 15 ;
16 [label="gini = 0.0\nsamples = 5\nvalue = [0, 5]\nclass = 1", fillcolor="#399de5ff"] ;
14 -> 16 ;
17 [label="MinimapAttacks <= 0.0\ngini = 0.32\nsamples = 894\nvalue = [179, 715]\nclass = 1", fillcolor="#399de5bf"] ;
1 -> 17 ;
18 [label="ActionLatency <= 45.828\ngini = 0.432\nsamples = 345\nvalue = [109, 236]\nclass = 1", fillcolor="#399de589"] ;
17 -> 18 ;
19 [label="UniqueHotkeys <= 0.0\ngini = 0.191\nsamples = 112\nvalue = [12, 100]\nclass = 1", fillcolor="#399de5e0"] ;
18 -> 19 ;
20 [label="gini = 0.165\nsamples = 110\nvalue = [10, 100]\nclass = 1", fillcolor="#399de5e6"] ;
19 -> 20 ;
21 [label="gini = 0.0\nsamples = 2\nvalue = [2, 0]\nclass = 0", fillcolor="#e58139ff"] ;
19 -> 21 ;
22 [label="UniqueHotkeys <= 0.0\ngini = 0.486\nsamples = 233\nvalue = [97, 136]\nclass = 1", fillcolor="#399de549"] ;
18 -> 22 ;
23 [label="gini = 0.355\nsamples = 26\nvalue = [20, 6]\nclass = 0", fillcolor="#e58139b3"] ;
22 -> 23 ;
24 [label="gini = 0.467\nsamples = 207\nvalue = [77, 130]\nclass = 1", fillcolor="#399de568"] ;
22 -> 24 ;
25 [label="ActionLatency <= 53.411\ngini = 0.222\nsamples = 549\nvalue = [70, 479]\nclass = 1", fillcolor="#399de5da"] ;
17 -> 25 ;
26 [label="WorkersMade <= 0.001\ngini = 0.169\nsamples = 439\nvalue = [41, 398]\nclass = 1", fillcolor="#399de5e5"] ;
25 -> 26 ;
27 [label="gini = 0.426\nsamples = 26\nvalue = [8, 18]\nclass = 1", fillcolor="#399de58e"] ;
26 -> 27 ;
28 [label="gini = 0.147\nsamples = 413\nvalue = [33, 380]\nclass = 1", fillcolor="#399de5e9"] ;
26 -> 28 ;
29 [label="SelectByHotkeys <= 0.002\ngini = 0.388\nsamples = 110\nvalue = [29, 81]\nclass = 1", fillcolor="#399de5a4"] ;
25 -> 29 ;
30 [label="gini = 0.0\nsamples = 5\nvalue = [5, 0]\nclass = 0", fillcolor="#e58139ff"] ;
29 -> 30 ;
31 [label="gini = 0.353\nsamples = 105\nvalue = [24, 81]\nclass = 1", fillcolor="#399de5b3"] ;
29 -> 31 ;
32 [label="ActionLatency <= 66.111\ngini = 0.355\nsamples = 1475\nvalue = [1135, 340]\nclass = 0", fillcolor="#e58139b3"] ;
0 -> 32 [labeldistance=2.5, labelangle=-45, headlabel="False"] ;
33 [label="MinimapAttacks <= 0.0\ngini = 0.484\nsamples = 530\nvalue = [313, 217]\nclass = 0", fillcolor="#e581394e"] ;
32 -> 33 ;
34 [label="MaxTimeStamp <= 59156.0\ngini = 0.384\nsamples = 278\nvalue = [206, 72]\nclass = 0", fillcolor="#e58139a6"] ;
33 -> 34 ;
35 [label="WorkersMade <= 0.001\ngini = 0.496\nsamples = 66\nvalue = [36, 30]\nclass = 0", fillcolor="#e581392a"] ;
34 -> 35 ;
36 [label="gini = 0.391\nsamples = 30\nvalue = [22, 8]\nclass = 0", fillcolor="#e58139a2"] ;
35 -> 36 ;
37 [label="gini = 0.475\nsamples = 36\nvalue = [14, 22]\nclass = 1", fillcolor="#399de55d"] ;
35 -> 37 ;
38 [label="SelectByHotkeys <= 0.001\ngini = 0.318\nsamples = 212\nvalue = [170, 42]\nclass = 0", fillcolor="#e58139c0"] ;
34 -> 38 ;
39 [label="gini = 0.065\nsamples = 59\nvalue = [57, 2]\nclass = 0", fillcolor="#e58139f6"] ;
38 -> 39 ;
40 [label="gini = 0.386\nsamples = 153\nvalue = [113, 40]\nclass = 0", fillcolor="#e58139a5"] ;
38 -> 40 ;
41 [label="SelectByHotkeys <= 0.002\ngini = 0.489\nsamples = 252\nvalue = [107, 145]\nclass = 1", fillcolor="#399de543"] ;
33 -> 41 ;
42 [label="UniqueUnitsMade <= 0.0\ngini = 0.417\nsamples = 54\nvalue = [38, 16]\nclass = 0", fillcolor="#e5813994"] ;
41 -> 42 ;
43 [label="gini = 0.38\nsamples = 51\nvalue = [38, 13]\nclass = 0", fillcolor="#e58139a8"] ;
42 -> 43 ;
44 [label="gini = 0.0\nsamples = 3\nvalue = [0, 3]\nclass = 1", fillcolor="#399de5ff"] ;
42 -> 44 ;
45 [label="UniqueHotkeys <= 0.0\ngini = 0.454\nsamples = 198\nvalue = [69, 129]\nclass = 1", fillcolor="#399de577"] ;
41 -> 45 ;
46 [label="gini = 0.495\nsamples = 51\nvalue = [28, 23]\nclass = 0", fillcolor="#e581392e"] ;
45 -> 46 ;
47 [label="gini = 0.402\nsamples = 147\nvalue = [41, 106]\nclass = 1", fillcolor="#399de59c"] ;
45 -> 47 ;
48 [label="APM <= 98.499\ngini = 0.226\nsamples = 945\nvalue = [822, 123]\nclass = 0", fillcolor="#e58139d9"] ;
32 -> 48 ;
49 [label="ActionLatency <= 90.731\ngini = 0.148\nsamples = 758\nvalue = [697, 61]\nclass = 0", fillcolor="#e58139e9"] ;
48 -> 49 ;
50 [label="UniqueHotkeys <= 0.0\ngini = 0.196\nsamples = 554\nvalue = [493, 61]\nclass = 0", fillcolor="#e58139df"] ;
49 -> 50 ;
51 [label="gini = 0.179\nsamples = 542\nvalue = [488, 54]\nclass = 0", fillcolor="#e58139e3"] ;
50 -> 51 ;
52 [label="gini = 0.486\nsamples = 12\nvalue = [5, 7]\nclass = 1", fillcolor="#399de549"] ;
50 -> 52 ;
53 [label="gini = 0.0\nsamples = 204\nvalue = [204, 0]\nclass = 0", fillcolor="#e58139ff"] ;
49 -> 53 ;
54 [label="UniqueHotkeys <= 0.0\ngini = 0.443\nsamples = 187\nvalue = [125, 62]\nclass = 0", fillcolor="#e5813981"] ;
48 -> 54 ;
55 [label="WorkersMade <= 0.002\ngini = 0.412\nsamples = 172\nvalue = [122, 50]\nclass = 0", fillcolor="#e5813996"] ;
54 -> 55 ;
56 [label="gini = 0.388\nsamples = 163\nvalue = [120, 43]\nclass = 0", fillcolor="#e58139a4"] ;
55 -> 56 ;
57 [label="gini = 0.346\nsamples = 9\nvalue = [2, 7]\nclass = 1", fillcolor="#399de5b6"] ;
55 -> 57 ;
58 [label="AssignToHotkeys <= 0.0\ngini = 0.32\nsamples = 15\nvalue = [3, 12]\nclass = 1", fillcolor="#399de5bf"] ;
54 -> 58 ;
59 [label="gini = 0.5\nsamples = 6\nvalue = [3, 3]\nclass = 0", fillcolor="#e5813900"] ;
58 -> 59 ;
60 [label="gini = 0.0\nsamples = 9\nvalue = [0, 9]\nclass = 1", fillcolor="#399de5ff"] ;
58 -> 60 ;
}