digraph Tree {
node [shape=box, style="filled, rounded", color="black", fontname=helvetica] ;
edge [fontname=helvetica] ;
0 [label="MinimapAttacks <= 0.0\ngini = 0.49\nsamples = 2503\nvalue = [1432, 1071]\nclass = 0", fillcolor="#e5813940"] ;
1 [label="UniqueUnitsMade <= 0.0\ngini = 0.43\nsamples = 1459\nvalue = [1003, 456]\nclass = 0", fillcolor="#e581398b"] ;
0 -> 1 [labeldistance=2.5, labelangle=45, headlabel="True"] ;
2 [label="GapBetweenPACs <= 30.16\ngini = 0.363\nsamples = 618\nvalue = [471, 147]\nclass = 0", fillcolor="#e58139af"] ;
1 -> 2 ;
3 [label="gini = 0.469\nsamples = 112\nvalue = [42, 70]\nclass = 1", fillcolor="#399de566"] ;
2 -> 3 ;
4 [label="gini = 0.258\nsamples = 506\nvalue = [429, 77]\nclass = 0", fillcolor="#e58139d1"] ;
2 -> 4 ;
5 [label="ComplexAbilityUsed <= 0.0\ngini = 0.465\nsamples = 841\nvalue = [532, 309]\nclass = 0", fillcolor="#e581396b"] ;
1 -> 5 ;
6 [label="gini = 0.439\nsamples = 658\nvalue = [444, 214]\nclass = 0", fillcolor="#e5813984"] ;
5 -> 6 ;
7 [label="gini = 0.499\nsamples = 183\nvalue = [88, 95]\nclass = 1", fillcolor="#399de513"] ;
5 -> 7 ;
8 [label="ActionLatency <= 66.46\ngini = 0.484\nsamples = 1044\nvalue = [429, 615]\nclass = 1", fillcolor="#399de54d"] ;
0 -> 8 [labeldistance=2.5, labelangle=-45, headlabel="False"] ;
9 [label="WorkersMade <= 0.001\ngini = 0.368\nsamples = 736\nvalue = [179, 557]\nclass = 1", fillcolor="#399de5ad"] ;
8 -> 9 ;
10 [label="gini = 0.488\nsamples = 102\nvalue = [43, 59]\nclass = 1", fillcolor="#399de545"] ;
9 -> 10 ;
11 [label="gini = 0.337\nsamples = 634\nvalue = [136, 498]\nclass = 1", fillcolor="#399de5b9"] ;
9 -> 11 ;
12 [label="WorkersMade <= 0.001\ngini = 0.306\nsamples = 308\nvalue = [250, 58]\nclass = 0", fillcolor="#e58139c4"] ;
8 -> 12 ;
13 [label="gini = 0.186\nsamples = 183\nvalue = [164, 19]\nclass = 0", fillcolor="#e58139e1"] ;
12 -> 13 ;
14 [label="gini = 0.429\nsamples = 125\nvalue = [86, 39]\nclass = 0", fillcolor="#e581398b"] ;
12 -> 14 ;
}