digraph Tree {
node [shape=box, style="filled, rounded", color="black", fontname=helvetica] ;
edge [fontname=helvetica] ;
0 [label="ActionLatency <= 57.903\ngini = 0.492\nsamples = 2503\nvalue = [1414, 1089]\nclass = 0", fillcolor="#e581393b"] ;
1 [label="APM <= 142.783\ngini = 0.389\nsamples = 1054\nvalue = [279, 775]\nclass = 1", fillcolor="#399de5a3"] ;
0 -> 1 [labeldistance=2.5, labelangle=45, headlabel="True"] ;
2 [label="gini = 0.48\nsamples = 539\nvalue = [216, 323]\nclass = 1", fillcolor="#399de554"] ;
1 -> 2 ;
3 [label="gini = 0.215\nsamples = 515\nvalue = [63, 452]\nclass = 1", fillcolor="#399de5db"] ;
1 -> 3 ;
4 [label="APM <= 80.768\ngini = 0.339\nsamples = 1449\nvalue = [1135, 314]\nclass = 0", fillcolor="#e58139b8"] ;
0 -> 4 [labeldistance=2.5, labelangle=-45, headlabel="False"] ;
5 [label="gini = 0.123\nsamples = 656\nvalue = [613, 43]\nclass = 0", fillcolor="#e58139ed"] ;
4 -> 5 ;
6 [label="gini = 0.45\nsamples = 793\nvalue = [522, 271]\nclass = 0", fillcolor="#e581397b"] ;
4 -> 6 ;
}